encog,BasicNetwork,java,3.4.0,1,1724545562932
[BASIC]
[BASIC:PARAMS]
[BASIC:NETWORK]
beginTraining=0
connectionLimit=0
contextTargetOffset=0,0,0
contextTargetSize=0,0,0
endTraining=2
hasContext=f
inputCount=3
layerCounts=2,11,4
layerFeedCounts=2,10,3
layerContextCount=0,0,0
layerIndex=0,2,13
output=0,0,0,0,0,0,0,0,0,0,0,0,1,0,0,0,1
outputCount=2
weightIndex=0,22,62
weights=-0.9152912304,-3.4184067682,1.9629969052,-0.5210672943,-0.8790958455,2.8075587865,5.1193691201,-1.1154430519,0.4715619204,-0.1085407144,-0.3451979882,0.3869867537,3.3583374062,-2.0703204843,0.5362768396,0.7100104628,-2.6928593689,-5.4500476592,1.4921006886,-0.8721706097,0.4751348709,0.919891876,15.7072886175,1.2767189048,-0.5096691017,-0.4094754372,-20.0042754875,-8.1570720466,0.4900352746,-0.5348972982,-6.9593619907,4.3328646858,-4.1745389407,-1.6225882345,-4648.0962224547,503.9483481843,259.3247699658,-0.2712780638,7.6029762217,2.934842071,4.5335905509,-1.2657178276,-6.8981494254,-1.3633562915,6.615455637,-2.698708011,-14.4191799972,-1.3620272292,0.1861009333,0.5553411381,10.2987200288,8.7143223804,0.5874918581,-0.4885140319,3983.0132845605,-5.1031092615,-10.1755090218,8.4794776173,-0.566025789,-5.6675775923,-1.2941835922,1.2462587938
biasActivation=0,1,1
[BASIC:ACTIVATION]
"org.encog.engine.network.activation.ActivationSigmoid"
"org.encog.engine.network.activation.ActivationSigmoid"
"org.encog.engine.network.activation.ActivationLinear"
