encog,BasicNetwork,java,3.4.0,1,1724811392989
[BASIC]
[BASIC:PARAMS]
[BASIC:NETWORK]
beginTraining=0
connectionLimit=0
contextTargetOffset=0,0,0
contextTargetSize=0,0,0
endTraining=2
hasContext=f
inputCount=3
layerCounts=2,11,4
layerFeedCounts=2,10,3
layerContextCount=0,0,0
layerIndex=0,2,13
output=0.9902521699,0.005888777,0,0,1,1,0,0,0,0,1,0,1,485.0217405943,5,0.6784264942,1
outputCount=2
weightIndex=0,22,62
weights=-0.4388204787,-0.3954014979,3.3835947851,2.1506536276,-3.2826271363,-0.7457547334,5.5420170924,0.8748890751,0.5170028498,-2.7909153847,-1.8587904024,0.3102713221,0.3186286523,-2.9595705076,-1.9581459216,3.4711547277,0.3112589741,-4.829361554,466.3649420531,-0.6346782517,3.490901534,0.7966041765,-149.6748738628,-51.4978438183,-499.4183996588,-23.2985357047,-17.5026951945,-1.9458838072,-35.3325789381,-4.9167916888,223.6599628418,51.2858657215,-63.74686591,3.6716051126,256.7544278989,86.7230671653,81.1855493365,5.0128372797,-27.1489294421,-216.8069886037,11.2713067019,8.7272636081,-27.2198821333,-24.33584035,119.2446932715,8.5595856043,2.6762648033,-2002.3800749571,1.8973505225,-2.0492408399,-1200.6321519365,-924.670347928,84.8691076401,-1.2916040463,119.9469966372,243.6128153608,623.4501574515,-10.7589012336,-5.7729067564,-6.2632918039,16.6741854353,22.9157394218
biasActivation=0,1,1
[BASIC:ACTIVATION]
"org.encog.engine.network.activation.ActivationSigmoid"
"org.encog.engine.network.activation.ActivationSigmoid"
"org.encog.engine.network.activation.ActivationLinear"
