encog,BasicNetwork,java,3.4.0,1,1724907669934
[BASIC]
[BASIC:PARAMS]
[BASIC:NETWORK]
beginTraining=0
connectionLimit=0
contextTargetOffset=0,0,0
contextTargetSize=0,0,0
endTraining=2
hasContext=f
inputCount=3
layerCounts=2,11,4
layerFeedCounts=2,10,3
layerContextCount=0,0,0
layerIndex=0,2,13
output=0,1,1,1,1,1,1,1,1,1,1,1,1,50.3829985343,0,-0.9998561572,1
outputCount=2
weightIndex=0,22,62
weights=-7.9398676487,-18.4909188495,-8.9451492038,-8.1651146142,-8.8958618296,-266.7964541416,-18.851909073,-57.9822335085,-10.8890755667,-61.190027566,0.6931457584,9.2149261758,19.8300311568,9.8266162,9.1200266304,8.5606014066,272.3677864965,20.0115486097,62.7578741111,9.7767372996,69.2037410382,-0.6931450389,2863.0206486306,-2218.1992633829,-1260.404414005,4.5934330688,3020.0564007396,-1970.4414368069,-1631.8654756558,15.2479913164,2913.9014359617,-2168.5445359231,-1261.3802633808,8.6879612875,2862.9307111642,-2169.0574926222,-1211.5911682037,6.9118463204,2574.7873472116,-2218.5119367674,-1311.0949201038,7.0155279875,3436.358792778,-2116.7440729094,82.4394414007,22.1405007125,3018.8419320288,-1970.211986081,-1631.4402575543,14.8176732132,3435.2740365885,-2862.3643375753,27.9810874243,17.8207928659,2623.6609583649,-2214.210899072,-1061.4961093567,9.2118776691,3435.1993074599,-2863.8797683469,29.6292677845,20.3965552882
biasActivation=0,1,1
[BASIC:ACTIVATION]
"org.encog.engine.network.activation.ActivationSigmoid"
"org.encog.engine.network.activation.ActivationSigmoid"
"org.encog.engine.network.activation.ActivationLinear"
