encog,BasicNetwork,java,3.4.0,1,1724601898744
[BASIC]
[BASIC:PARAMS]
[BASIC:NETWORK]
beginTraining=0
connectionLimit=0
contextTargetOffset=0,0,0
contextTargetSize=0,0,0
endTraining=2
hasContext=f
inputCount=3
layerCounts=2,11,4
layerFeedCounts=2,10,3
layerContextCount=0,0,0
layerIndex=0,2,13
output=0.2481290458,0.7523246288,1,0.0000000212,0.9950855492,0.0125656355,0.1227738861,0.0002059562,0.6736668557,0.0728817018,0.0000413546,0.9999844096,1,0.181784,0.5,0.637733,1
outputCount=2
weightIndex=0,22,62
weights=-2.689666496,5.8114638016,-1.6872506681,9.0500467254,-6.6405186501,-4.0469421679,9.1165420454,3.9640569502,-5.982857063,-3.0805258974,1.0382157236,2.6992620738,-5.771950443,1.7179457622,-8.9999741661,6.6506018964,4.0295262369,-9.1780568902,-3.9669655078,5.9554098673,3.1449720349,-1.0681146669,-392.8324051256,413.1068153176,0.1697174906,-109.8970073461,-30.4706796144,-32.7405690604,27.9525088537,-20.054462082,-52.7831301806,17.1900947333,42.9619188745,-10.2317805354,-2.1360367417,-1.834748497,-4.990384235,-0.7906798621,24.7244987852,-3.2359187734,-3.8167891583,-2.0225606216,13.6575229084,-6.9014481143,-2.8021001896,-6.7908753093,8.4458593125,0.8897359631,1.1523353276,-1.9765869438,-17.802039393,-9.9221790111,0.7874041709,4.3010711243,12.6113292236,-12.7577326158,-4.4644473836,0.3225109818,42.8790236936,2.0058734339,6.3595265713,-7.4922863069
biasActivation=0,1,1
[BASIC:ACTIVATION]
"org.encog.engine.network.activation.ActivationSigmoid"
"org.encog.engine.network.activation.ActivationSigmoid"
"org.encog.engine.network.activation.ActivationLinear"
