encog,BasicNetwork,java,3.4.0,1,1724609659086
[BASIC]
[BASIC:PARAMS]
[BASIC:NETWORK]
beginTraining=0
connectionLimit=0
contextTargetOffset=0,0,0
contextTargetSize=0,0,0
endTraining=2
hasContext=f
inputCount=3
layerCounts=2,11,4
layerFeedCounts=2,10,3
layerContextCount=0,0,0
layerIndex=0,2,13
output=0.2208251287,0.777067434,0,0.0000000043,0,0.9601213221,0.9997653629,0.9822325851,0.161622045,0.999575053,0.9999996442,0.0456080857,1,0.174741,-0.75,-0.44258,1
outputCount=2
weightIndex=0,22,62
weights=-2.2129730121,5.9502786102,-1.9491800427,9.5845878372,-6.2738307274,-3.9484191793,9.2237229752,4.3877904983,-6.9757355952,-3.3071804589,0.9372774662,2.2650407178,-5.9847337347,2.0052204334,-9.6994507264,6.2673143611,4.1133345116,-9.1956481157,-4.5132971673,7.0860319388,3.2962055292,-0.9835520564,-398.8993318073,416.0731977211,-1.4320397817,-110.2182574883,-29.4636228731,-33.6239079194,36.5329972925,-23.1577660761,-53.8623110451,16.4681466063,41.8489531135,-9.4958343271,-2.3505524512,-2.223433476,-4.8985547258,-0.2436217117,25.8276508901,-2.1997545888,-5.9509585557,-0.4395048276,13.0248031345,-9.3763959751,-4.7353701577,-7.3915822573,8.6012351623,0.9084988946,1.0650272098,-1.9964629852,-18.0738958292,-8.6178044232,0.390059501,4.6306510112,12.689335515,-12.8834445975,-5.0770519389,0.7220040658,42.6490576678,0.5668135615,5.7335596586,-7.5308593619
biasActivation=0,1,1
[BASIC:ACTIVATION]
"org.encog.engine.network.activation.ActivationSigmoid"
"org.encog.engine.network.activation.ActivationSigmoid"
"org.encog.engine.network.activation.ActivationLinear"
