encog,BasicNetwork,java,3.4.0,1,1724716107309
[BASIC]
[BASIC:PARAMS]
[BASIC:NETWORK]
beginTraining=0
connectionLimit=0
contextTargetOffset=0,0,0
contextTargetSize=0,0,0
endTraining=2
hasContext=f
inputCount=3
layerCounts=2,11,4
layerFeedCounts=2,10,3
layerContextCount=0,0,0
layerIndex=0,2,13
output=0,0,0,0,0,0,0,0,0,0,0,0,1,0,0,0,1
outputCount=2
weightIndex=0,22,62
weights=-24.523051381,3954.2731924541,-26.5270616057,2.4236221069,7.3644583037,49.6170255644,4.1569361795,-140.8307668846,-2.8339644688,-13.351410521,-0.4298449503,11.1172294517,-2348.9532625047,33.4164176314,-5.1959051632,-5.2106036026,-54.6117724534,29.7303190576,108.0740949647,-1.7774709492,27.9742117136,-3.2503186247,6.8308728798,1.9351329919,-4.5337992421,-5.666505312,151.531958853,-192.7326294497,190.7770701531,3.3436870093,193.6062977299,-39.4680858794,96.6485145464,-40.2501081473,-9.0404609453,5.4976819387,-12.6087645658,132.8298157136,55.8977482452,-10.1507059261,2.3702864334,39.3004545944,72.2050875548,-3.9208752929,10.1047075152,-3.2175461976,-204.3988178237,1835.7312286363,395.8734263764,73.6171419304,-35.57202302,-3.8662649423,-8.2189119367,2.4595099221,420.2900373587,-16.6041992455,-126.1628650862,90.010027356,365.602723423,-491.2789754254,-517.3804215029,-62.6684442027
biasActivation=0,1,1
[BASIC:ACTIVATION]
"org.encog.engine.network.activation.ActivationSigmoid"
"org.encog.engine.network.activation.ActivationSigmoid"
"org.encog.engine.network.activation.ActivationLinear"
