encog,BasicNetwork,java,3.4.0,1,1724616252797
[BASIC]
[BASIC:PARAMS]
[BASIC:NETWORK]
beginTraining=0
connectionLimit=0
contextTargetOffset=0,0,0
contextTargetSize=0,0,0
endTraining=2
hasContext=f
inputCount=3
layerCounts=2,11,4
layerFeedCounts=2,10,3
layerContextCount=0,0,0
layerIndex=0,2,13
output=0.8029776349,0.2084084744,1,0.9990381243,0.9999999999,0.0000000634,1,0.8996967885,0.9590970567,1,0.9999999682,0.9917939384,1,0.323651,-0.75,0.480742,1
outputCount=2
weightIndex=0,22,62
weights=-9.3040040835,1.1170860683,-1.1720251171,-12.2054984876,2.1377398097,2.3466880173,2.0431892983,-1.3073589358,7.6261149849,-1.1398192007,-0.6319263415,8.953852407,-0.9883607731,1.0906012543,11.81716684,-2.0542493954,-2.4149699914,-1.8039737918,1.2978943424,-7.1051897371,1.1829218257,0.199666714,69.82274735,-18.0641191525,6.8277448658,-5.7313348838,-29.7527713573,-6.6853558298,-21.9404315797,22.1088472289,-166.3690799429,-75.9191753475,-31.8540086282,35.2103825164,-29.3332364763,8.0603549476,-4.153885588,0.9626782204,14.382103583,-37.7079911928,28.9412640737,10.0931541025,4.107585282,-3.8766649145,-7.1054314468,1.3728166456,-1.8331384225,6.2534189865,1.9998062952,7.4767606969,8299.6189154715,680.3913882195,-335.8526707088,-321.3959844605,79.305723219,1.3717087111,-4.00060411,-5.4520757693,15.0632601224,-21.5144954377,-14.4491839979,-9.2701389066
biasActivation=0,1,1
[BASIC:ACTIVATION]
"org.encog.engine.network.activation.ActivationSigmoid"
"org.encog.engine.network.activation.ActivationSigmoid"
"org.encog.engine.network.activation.ActivationLinear"
