encog,BasicNetwork,java,3.4.0,1,1724539247336
[BASIC]
[BASIC:PARAMS]
[BASIC:NETWORK]
beginTraining=0
connectionLimit=0
contextTargetOffset=0,0,0
contextTargetSize=0,0,0
endTraining=2
hasContext=f
inputCount=3
layerCounts=2,11,4
layerFeedCounts=2,10,3
layerContextCount=0,0,0
layerIndex=0,2,13
output=0.1615672849,0.8439459225,0.7693442838,0.9998320157,0,0.5923372417,0.0079769011,1,0.2222600392,0.9984858994,1,0.0691026449,1,0.30397,0.5,-0.36116,1
outputCount=2
weightIndex=0,22,62
weights=0.7517757556,-0.3058843985,-2.2468588212,0.1591219813,0.7828962268,-0.4432878459,3.0680505511,-0.9926176431,-0.7550046165,0.9997245573,-0.5812344442,1.1112184907,1.2761603729,1.8898394696,0.7979858692,-0.8146827026,0.1600922397,-2.8798564151,-0.2830923071,0.1294293418,0.1841634924,-0.2886549647,0.9824170551,0.3866646462,-0.6263447678,0.4864440683,17.1168520384,0.2027584832,-7.2767460315,0.7590134716,-76.1489991568,-3.3204364914,-2.2132549771,-0.4526957995,2.1228475087,0.9109926703,-0.2701562588,-0.8247120487,-9.0483056869,-2.1527533981,4.1511051325,0.5028069188,208.6598507419,24.9289447123,0.064316927,0.028832902,-8.6546520286,1.6971094557,-4.2133802178,-0.9920487338,14.0601296865,-0.1163102905,-5.2844162251,0.3671961922,76.005742101,8.3019614819,1.1365237828,0.6694352692,-1.8014035018,-1.2837129489,1.5356796847,-0.8565008403
biasActivation=0,1,1
[BASIC:ACTIVATION]
"org.encog.engine.network.activation.ActivationSigmoid"
"org.encog.engine.network.activation.ActivationSigmoid"
"org.encog.engine.network.activation.ActivationLinear"
