encog,BasicNetwork,java,3.4.0,1,1724544402619
[BASIC]
[BASIC:PARAMS]
[BASIC:NETWORK]
beginTraining=0
connectionLimit=0
contextTargetOffset=0,0,0
contextTargetSize=0,0,0
endTraining=2
hasContext=f
inputCount=3
layerCounts=2,11,4
layerFeedCounts=2,10,3
layerContextCount=0,0,0
layerIndex=0,2,13
output=0,0,0,0,0,0,0,0,0,0,0,0,1,0,0,0,1
outputCount=2
weightIndex=0,22,62
weights=0.8697393964,4.2687165505,0.6131173136,1.5762637289,-1.892706427,-0.6325714598,0.3204028051,-0.5452024629,0.6462387068,3.6353441583,-1.1762878689,-0.8691754219,-4.6075625372,0.5981261702,-1.5187342875,1.6375912182,-0.2775339972,-0.1749295596,-0.6978666117,0.8711853851,-3.3610999575,1.1683991007,2.3165175735,2.1770538815,5.3553749953,-2.3221399326,-17.042710171,-1.0428538082,2.0745795753,-1.2332837154,-0.3239686946,-0.0050448804,0.6556097517,0.4333114375,-13.7517700578,-3.7402873283,8.4774853801,-1.9313842757,2.04267945,5.1057067891,4.7527961062,3.6038426535,-2.6758217365,-0.0772147435,-0.6011894568,0.2481620911,4.8815509313,-6.0337429716,7.2626058241,0.3468277868,-0.1393420427,-0.2542470888,-0.5963761491,0.8420881253,-0.4845036757,0.0434518434,-1.3818372624,-0.6157943375,-8.7564161477,4.0626799415,-3.945112835,-1.1224518196
biasActivation=0,1,1
[BASIC:ACTIVATION]
"org.encog.engine.network.activation.ActivationSigmoid"
"org.encog.engine.network.activation.ActivationSigmoid"
"org.encog.engine.network.activation.ActivationLinear"
