encog,BasicNetwork,java,3.4.0,1,1724710193077
[BASIC]
[BASIC:PARAMS]
[BASIC:NETWORK]
beginTraining=0
connectionLimit=0
contextTargetOffset=0,0,0
contextTargetSize=0,0,0
endTraining=2
hasContext=f
inputCount=3
layerCounts=2,11,4
layerFeedCounts=2,10,3
layerContextCount=0,0,0
layerIndex=0,2,13
output=0,0,0,0,0,0,0,0,0,0,0,0,1,0,0,0,1
outputCount=2
weightIndex=0,22,62
weights=-9.2146480321,-1.7634346615,-1.2617493795,4.0243546202,7.0135126673,0.817581396,0.0232993138,-4.9299347492,-2.4246392032,-1.9167124079,-0.0094738618,6.5702175648,1.6362677052,1.6987140217,-3.4490783636,-6.1895562535,-1.8285946295,0.4491422866,5.8615104151,1.8046734315,1.6555470887,0.2494913001,-5.4017409197,0.5169208726,-3.3657616057,-1.3736777368,50.9139899597,-156.2586810005,191.5677502273,-1.949964098,142.6317070215,-5.0638451623,59.9134085695,0.5939186026,-19.0486346585,-3.5065579644,-7.837434425,3.151244035,75.0977257366,8.6480586095,-16.3406339822,8.823141771,9.183579268,0.6461298181,3.6572156572,3.5425671647,214.6277774877,306.7562194121,270.6624585048,13.7679983426,-16.7359602154,0.3737682086,-8.194223409,4.1040325104,20.8796935759,11.7215017755,-7.7776542413,1.5893728212,285.9539979041,750.7993014429,1211.361079626,2.9343360777
biasActivation=0,1,1
[BASIC:ACTIVATION]
"org.encog.engine.network.activation.ActivationSigmoid"
"org.encog.engine.network.activation.ActivationSigmoid"
"org.encog.engine.network.activation.ActivationLinear"
